  1990   -84  -106    46
  2000   -84   -97    40
  2010   -95  -107    43
  2020   -81  -110    45
  2030   -89  -101    68
  2040   -87  -113    59
  2050   -75  -113    38
  2060   -85   -96    35
  2070   -95  -116    55
  2080   -74   -94    58
  2090   -78  -119    76
  2100   -95  -108    41
  2110   -79   -96    46
  2120   -74  -113    55
  2130   -92   -92    34
  2140   -89   -97    64
  2150   -94  -122    54
  2160   -95  -118    57
  2170   -88  -121    55
  2180   -80  -111    48
  2190   -85   -99    38
  2200   -66   -98    40
  2210   -71   -95    42
  2220   -97   -91    29
  2230   -88  -100    47
  2240   -78  -120    42
  2250   -85   -95    62
  2260   -90  -109    71
  2270   -88  -107    63
  2280   -85  -113    56
  2290   -95  -105    74
  2300   -90  -110    71
  2310   -88  -103    47
  2320  -103  -120    64
  2330   -67  -123    46
  2340   -94  -113    58
  2350   -63  -106    50
  2360   -71  -107    55
  2370   -74   -89    38
  2380   -83   -97    55
  2390   -73  -111    49
  2400   -92  -112    44
  2410   -98  -101    52
  2420   -68  -106    42
  2430   -72   -94    41
  2440   -89   -99    46
  2450  -102  -105    46
  2460   -89   -95    57
  2470   -81  -102    46
  2480   -73  -103    52
  2490   -88  -115    54
  2500   -87  -106    57
  2510   -59   -93    32
  2520  -105   -91    60
  2530   -76  -112    47
  2540   -99  -111    38
  2550   -98  -106    71
  2560   -79  -115    29
  2570   -81   -96    63
  2580  -107  -101    40
  2590   -81  -102    39
  2600   -85  -111    47
  2610  -101  -103    60
  2620   -66  -115    51
  2630   -73  -114    63
  2640   -92  -102    44
  2650   -56  -120    21
  2660   -99  -111    57
  2670   -92  -104    46
  2680   -74   -87    66
  2690   -83  -121    54
  2700   -76   -93    28
  2710   -72  -113    66
  2720   -96  -107    52
  2730   -84   -97    33
  2740   -57  -102    53
  2750   -90  -106    44
  2760   -89  -122    56
  2770   -84  -103    48
  2780   -74  -100    60
  2790   -82  -101    56
  2800   -81  -111    45
  2810   -85   -92    55
  2820   -80  -112    56
  2830   -92  -103    34
  2840   -78  -105    59
  2850  -102  -112    44
  2860  -103  -113    48
  2870   -76  -113    57
  2880   -62  -102    27
  2890   -93  -102    64
  2900  -104  -104    62
  2910   -80  -108    42
  2920   -88  -105    38
  2930   -95   -92    52
  2940   -98  -112    49
  2950   -89  -105    42
  2960   -85   -94    28
  2970   -84  -104    37
  2980   -82  -100    54
  2990   -83  -100    71
  3000   -92  -103    64
  3010  -108  -120    49
  3020   -83   -94    43
  3030   -99  -111    48
  3040   -75  -107    24
  3050   -89  -108    41
  3060   -88  -106    50
  3070   -69  -119    52
  3080   -74  -111    32
  3090  -101  -104    45
  3100   -80   -95    44
  3110   -74  -112    65
  3120   -81  -121    43
  3130   -80  -115    62
  3140   -91  -109    66
  3150   -84  -106    59
  3160   -80   -93    70
  3170   -76  -128    43
  3180   -87  -142    38
  3190   -76  -112    27
  3200   -80  -101    76
  3210   -64  -109    45
  3220   -90  -111    40
  3230   -81   -95    50
  3240   -84   -95    52
  3250  -109  -110    40
  3260  -105  -103    68
  3270   -90  -103    55
  3280   -83  -122    45
  3290   -80   -97    47
  3300   -89  -113    55
  3310   -82  -108    51
  3320   -81  -122    64
  3330   -78  -113    56
  3340   -74  -111    35
  3350   -96   -88    25
  3360   -78   -85    45
  3370   -78  -110    33
  3380   -79  -107    50
  3390   -65  -116    50
  3400   -76  -115    45
  3410   -83  -125    49
  3420   -98  -107    65
  3430   -78  -107    39
  3440  -100  -116    43
  3450   -98   -93    75
  3460   -90   -94    53
  3470   -92   -94    54
  3480   -83   -95    50
  3490   -71  -108    64
  3500   -73  -104    69
  3510  -101  -108    67
  3520   -94  -102    64
  3530   -64   -95    45
  3540   -65  -102    36
  3550   -76  -125    46
  3560   -87  -112    68
  3570   -71  -100    44
  3580   -66  -107    47
  3590   -89  -114    44
  3600   -81  -104    34
  3610   -97  -102    43
  3620   -77  -119    44
  3630  -108   -97    32
  3640   -69   -92    43
  3650   -75  -116    45
  3660   -81  -111    39
  3670   -83   -97    65
  3680   -65  -105    38
  3690  -104  -112    76
  3700   -95  -108    49
  3710  -105  -118    45
  3720   -90  -106    49
  3730   -71  -106    43
  3740   -76  -106    36
  3750   -59  -123    64
  3760   -81  -118    47
  3770   -83  -120    52
  3780   -74  -116    62
  3790   -93  -106    39
  3800   -73  -122    58
  3810   -87  -110    64
  3820  -100  -100    47
  3830   -68  -121    56
  3840   -77  -105    31
  3850   -92  -113    69
  3860   -94  -106    66
  3870   -83   -94    53
  3880   -91   -99    54
  3890   -78   -96    65
  3900   -79  -111    71
  3910   -72  -106    59
  3920   -76  -108    50
  3930   -71  -116    51
  3940  -100  -108    49
  3950   -97  -121    58
  3960   -66   -93    61
  3970   -94  -132    38
  3980   -91  -111    34
  3990   -90  -119    46
  4000   -76  -110    56
  4010   -60  -120    38
  4020  -101   -89    59
  4030   -85  -127    48
  4040   -94   -89    51
  4050   -83   -96    50
  4060   -84  -111    36
  4070   -99  -112    54
  4080   -61  -126    36
  4090   -97  -114    19
  4100   -84  -113    42
  4110   -96  -105    35
  4120   -84  -114    36
  4130   -77  -103    48
  4140   -97  -115    80
  4150   -81  -103    52
  4160  -100   -98    40
  4170   -89  -111    48
  4180   -75   -96    69
  4190   -82   -93    80
  4200   -85  -102    20
  4210   -69  -117    66
  4220   -90  -118    58
  4230   -65  -101    63
  4240   -97   -99    67
  4250  -100  -105    63
  4260   -93   -92    39
  4270   -84  -108    42
  4280   -91   -98    61
  4290   -95  -106    30
  4300  -100   -99    45
  4310   -78  -115    54
  4320   -92  -104    58
  4330   -77  -119    53
  4340   -89  -121    48
  4350   -76   -98    61
  4360   -87  -105    33
  4370   -96  -115    53
  4380   -92   -90    49
  4390   -81  -107    34
  4400  -106  -114    58
  4410   -72  -100    32
  4420   -75  -102    38
  4430   -83  -117    56
  4440   -79  -113    50
  4450   -84  -103    32
  4460   -95  -106    53
  4470   -87  -103    47
  4480   -92  -104    45
  4490   -94  -107    57
  4500   -76   -95    32
  4510   -98   -98    51
  4520   -62  -111    61
  4530   -93  -126    72
  4540   -98  -111    52
  4550   -80  -112    64
  4560   -76  -114    51
  4570   -76  -111    49
  4580   -99   -96    58
  4590   -89  -108    58
  4600   -94  -114    56
  4610   -66  -101    41
  4620   -88  -114    64
  4630   -92  -109    56
  4640   -86  -107    60
  4650   -93  -107    31
  4660   -68  -102    38
  4670   -85  -102    57
  4680   -84  -111    39
  4690   -83  -108    45
  4700  -100   -94    25
  4710   -82   -93    64
  4720   -89   -78    58
  4730   -78   -93    45
  4740   -96  -105    67
  4750   -92   -90    32
  4760   -82  -119    58
  4770   -99  -103    60
  4780   -86   -87    27
  4790   -90  -102    42
  4800   -72   -90    62
  4810   -69   -95    38
  4820   -81   -89    41
  4830   -73  -105    48
  4840   -92  -108    33
  4850   -96  -100    43
  4860   -96  -116    63
  4870   -89  -116    61
  4880   -95  -113    49
  4890   -87  -108    33
  4900   -82  -108    35
  4910  -112  -107    49
  4920   -94  -105    59
  4930   -79  -116    44
  4940   -98  -112    60
  4950   -85  -108    64
  4960   -97  -112    53
  4970   -77  -108    51
  4980   -96   -99    53
  4990  -107  -127    48
  5000   -82  -102    47
  5010   -81  -102    32
  5020   -68   -88    40
  5030   -76  -115    34
  5040   -84  -104    76
  5050   -81   -99    64
  5060  -114  -112    60
  5070   -81   -96    42
  5080  -103  -124    35
  5090  -109   -98    59
  5100   -75   -95    60
  5110   -80  -108    54
  5120   -71   -96    51
  5130   -86  -115    27
  5140   -82  -106    35
  5150   -82  -101    53
  5160   -83  -107    49
  5170   -70  -107    42
  5180   -74  -101    65
  5190   -85  -122    42
  5200   -71   -89    40
  5210   -97  -123    41
  5220   -62   -95    43
  5230   -71  -115    59
  5240   -81  -114    34
  5250   -95   -85    40
  5260   -83  -109    53
  5270   -65  -105    58
  5280   -74   -89    49
  5290   -88   -96    68
  5300   -84  -103    46
  5310   -77  -105    31
  5320   -99  -116    86
  5330   -92   -97    71
  5340   -86  -109    48
  5350   -80   -96    32
  5360  -100  -106    42
  5370   -78  -114    38
  5380   -91  -110    69
  5390   -95  -128    56
  5400   -98   -95    57
  5410   -83  -109    49
  5420  -113  -113    48
  5430   -60   -94    62
  5440   -65  -110    53
  5450   -87  -109    62
  5460  -105  -125    43
  5470   -86  -116    53
  5480   -77  -102    51
  5490   -90   -93    65
  5500   -84  -108    51
  5510   -89  -107    32
  5520   -88  -100    63
  5530   -82  -111    49
  5540   -75  -113    52
  5550   -97  -101    62
  5560   -87  -101    34
  5570   -82  -123    20
  5580   -89  -111    39
  5590   -81  -107    40
  5600   -77  -108    23
  5610   -75  -110    17
  5620   -81  -105    68
  5630   -97  -121    49
  5640   -79  -100    53
  5650   -79   -92    36
  5660   -93  -111    47
  5670   -80  -106    65
  5680   -91  -124    37
  5690   -76   -96    57
  5700   -95  -117    63
  5710   -89  -111    30
  5720   -79   -95    57
  5730   -91  -111    68
  5740   -75  -103    36
  5750   -85  -116    55
  5760   -92   -99    43
  5770  -101  -119    42
  5780   -83  -121    53
  5790   -89  -115    34
  5800   -91   -83    67
  5810   -75   -92    38
  5820   -71   -96    29
  5830   -80  -108    53
  5840   -81   -97    53
  5850   -74  -109    58
  5860   -77  -102    25
  5870   -78  -109    59
  5880   -69  -112    26
  5890  -109  -106    58
  5900   -68   -97    32
  5910   -85  -104    45
  5920   -93  -117    56
  5930   -64   -93    33
  5940   -84  -108    67
  5950  -106  -109    15
  5960   -69  -114    38
  5970   -74  -104    45
  5980   -67  -106    41
  5990   -68  -116    61
  6000   -85  -107    51
  6010  -111  -108    45
  6020   -74   -92    33
  6030  -101  -130    39
  6040   -76  -104    43
  6050   -77  -115    62
  6060   -81  -126    54
  6070   -93  -116    27
  6080   -80   -93    50
  6090   -74  -115    42
  6100   -94  -106    35
  6110   -91  -105    53
  6120   -90  -106    64
  6130   -81  -105    56
  6140   -92  -116    28
  6150   -78   -91    64
  6160  -105  -114    43
  6170   -92  -105    64
  6180   -77  -100    51
  6190   -90  -106    51
  6200   -91   -91    57
  6210   -58  -102    34
  6220   -89  -113    55
  6230   -88  -106    67
  6240   -90  -110    59
  6250   -76   -92    67
  6260   -61  -101    59
  6270   -88  -105    39
  6280   -96  -101    46
  6290   -90  -117    78
  6300   -96  -118    51
  6310   -86  -104    69
  6320   -75  -115    54
  6330   -83   -98    55
  6340   -88  -100    44
  6350   -91  -108    60
  6360   -81  -104    44
  6370   -90  -115    37
  6380   -88   -89    31
  6390   -74  -104    24
  6400   -78  -100    45
  6410   -93  -114    27
  6420   -89   -97    42
  6430   -75  -110    43
  6440   -84  -111    53
  6450   -88   -99    59
  6460  -104   -94    51
  6470  -110   -95    59
  6480   -85  -122    54
  6490   -75  -107    60
  6500  -107  -108    66
  6510   -86  -100    61
  6520   -97  -105    40
  6530   -87  -119    56
  6540   -87   -98    64
  6550   -94  -121    43
  6560   -74  -110    57
  6570   -81  -126    27
  6580   -79  -113    38
  6590   -91  -122    38
  6600   -82  -104    59
  6610   -82  -111    35
  6620   -83  -103    56
  6630   -65   -94    37
  6640   -64  -117    41
  6650  -100  -103    74
  6660   -89  -101    55
  6670   -97  -134    47
  6680   -81  -109    45
  6690   -94  -107    43
  6700   -86  -101    51
  6710   -94  -102    40
  6720   -90   -95    39
  6730   -96  -112    70
  6740   -86   -99    41
  6750   -76  -102    25
  6760   -88   -94    50
  6770   -95  -110    32
  6780  -101  -113    60
  6790   -67  -110    30
  6800   -76  -118    52
  6810   -84   -99    78
  6820   -77  -101    44
  6830   -97  -100    65
  6840   -91  -124    55
  6850   -72  -116    53
  6860   -92  -108    49
  6870   -84   -74    55
  6880   -93   -92    53
  6890   -96   -94    60
  6900   -99   -98    59
  6910   -83  -113    52
  6920  -100  -107    56
  6930  -100  -109    44
  6940   -99  -112    60
  6950   -97  -106    61
  6960   -86   -94    51
  6970   -82  -107    36
  6980   -94  -118    58
  6990   -97  -107    46
  7000   -77  -108    54
  7010   -83  -107    33
  7020   -86  -106    70
  7030   -80   -80    39
  7040   -79  -115    35
  7050   -97  -127    27
  7060   -88  -108    47
  7070   -91   -91    77
  7080   -86   -86    37
  7090   -76  -110    67
  7100   -88  -116    59
  7110   -86  -113    57
  7120   -89   -89    52
  7130   -74   -99    43
  7140   -76  -119    48
  7150   -69  -120    38
  7160   -85   -89    67
  7170   -88  -100    56
  7180   -94   -96    67
  7190   -91  -117    65
  7200   -56  -100    68
  7210   -84   -97    60
  7220   -83  -104    47
  7230   -81  -126    50
  7240  -109   -97    51
  7250   -76  -100    46
  7260   -66  -131    36
  7270   -87  -107    42
  7280   -86   -96    63
  7290   -92  -120    24
  7300   -74  -100    59
  7310   -68   -82    40
  7320   -69   -97    56
  7330   -95  -104    57
  7340   -59  -117    58
  7350   -86  -110    49
  7360   -89  -122    49
  7370   -69  -100    29
  7380   -93   -81    19
  7390   -92  -109    54
  7400   -71  -102    23
  7410   -97  -120    54
  7420   -75  -123    58
  7430   -82  -112    46
  7440   -85   -88    37
  7450  -104  -109    67
  7460   -60  -117    42
  7470   -77  -104    64
  7480   -79  -103    50
  7490   -83  -109    54
  7500   -91   -96    56
  7510  -110  -104    47
  7520  -108  -108    53
  7530   -91  -100    62
  7540   -87  -103    37
  7550   -94  -114    58
  7560   -97  -108    42
  7570   -82  -120    55
  7580   -87  -120    49
  7590  -107  -128    41
  7600   -83  -114    65
  7610   -72  -111    37
  7620   -75  -107    58
  7630   -79  -121    62
  7640   -68  -117    37
  7650   -85   -94    40
  7660   -86   -93    55
  7670   -88  -100    59
  7680  -108   -96    40
  7690   -86  -101    58
  7700   -91  -112    39
  7710   -85  -109    44
  7720   -74  -123    49
  7730   -90  -106    83
  7740   -85   -94    36
  7750   -78  -108    45
  7760   -85  -108    34
  7770   -81  -109    49
  7780   -82  -110    29
  7790   -72   -90    31
  7800  -106  -112    54
  7810   -89  -107    44
  7820   -74  -108    32
  7830   -97  -113    46
  7840   -87  -111    38
  7850   -94   -97    34
  7860   -87   -99    51
  7870   -98   -98    48
  7880   -73  -105    35
  7890   -92  -112    45
  7900   -74   -96    46
  7910  -100  -115    59
  7920   -84  -110    47
  7930   -85  -111    54
  7940   -99  -104    40
  7950   -85  -116    50
  7960   -94  -130    74
  7970   -73  -108    62
  7980   -99  -106    52
  7990   -80   -93    42
  8000   -90  -101    41
  8010   -84  -101    46
  8020   -95  -106    51
  8030   -65  -122    46
  8040   -81  -113    80
  8050   -84  -108    39
  8060   -89  -125    42
  8070   -84  -112    51
  8080   -70   -85    50
  8090   -93  -121    58
  8100  -104  -109    56
  8110   -78  -124    53
  8120  -100  -119    75
  8130   -72   -98    63
  8140   -83  -104    72
  8150   -94   -97    69
  8160   -88  -107    55
  8170   -95   -98    32
  8180   -82  -108    74
  8190   -92  -106    53
  8200   -78  -107    60
  8210   -55  -106    54
  8220   -82  -103    49
  8230  -101   -94    49
  8240   -83  -106    53
  8250   -71   -95    58
  8260  -103  -129    59
  8270   -85  -107    66
  8280  -104  -113    40
  8290   -76   -91    52
  8300   -79  -104    67
  8310   -75  -113    36
  8320   -87  -112    46
  8330   -94  -104    52
  8340   -77   -99    42
  8350   -89   -97    44
  8360   -97  -103    54
  8370   -98  -104    43
  8380   -88  -123    51
  8390   -69   -97    42
  8400   -70  -101    56
  8410   -79  -108    67
  8420   -91  -114    49
  8430   -67  -102    43
  8440   -95  -114    66
  8450   -91  -103    56
  8460   -90   -99    60
  8470   -72  -108    32
  8480   -93  -118    41
  8490   -94  -107    45
  8500   -81  -105    41
  8510   -94   -98    65
  8520   -90  -104    51
  8530   -60  -112    49
  8540   -95  -102    54
  8550  -108  -110    38
  8560   -93  -123    48
  8570   -91   -93    55
  8580   -97  -120    43
  8590   -82  -113    33
  8600   -74  -102    55
  8610   -82   -91    61
  8620   -81  -111    61
  8630   -65   -93    44
  8640   -86  -112    57
  8650   -82  -109    40
  8660   -83  -107    39
  8670   -91   -97    59
  8680   -76  -111    42
  8690   -90  -104    51
  8700   -83  -114    62
  8710   -79  -100    26
  8720   -88   -98    59
  8730  -105  -111    73
  8740   -88  -116    37
  8750   -93   -99    58
  8760   -96  -112    47
  8770   -83  -111    54
  8780   -90  -128    59
  8790   -92   -94    40
  8800   -86  -106    64
  8810  -102  -110    67
  8820   -88  -114    76
  8830   -80  -105    59
  8840   -97   -86    62
  8850   -80   -92    45
  8860   -84   -90    28
  8870   -94   -99    64
  8880   -95  -107    43
  8890  -106   -90    49
  8900   -86  -101    51
  8910   -95  -110    35
  8920   -58  -115    54
  8930   -96  -111    53
  8940   -93   -96    72
  8950   -83  -100    55
  8960   -94  -113    63
  8970   -80  -100    61
  8980   -95  -113    70
  8990   -89  -116    48
  9000   -89  -115    63
  9010   -76  -118    26
  9020   -81  -114    48
  9030  -101  -107    44
  9040   -92  -104    31
  9050   -76  -115    39
  9060   -91  -115    60
  9070   -90  -119    53
  9080   -92  -107    43
  9090  -105  -102    30
  9100   -86   -93    39
  9110   -85  -108    30
  9120   -90  -110    40
  9130   -87  -104    51
  9140   -82  -112    35
  9150   -76   -88    48
  9160   -77  -111    67
  9170   -76  -110    74
  9180   -83  -112    32
  9190   -75   -93    41
  9200   -85  -111    59
  9210   -95  -121    64
  9220   -66  -110    47
  9230   -79  -120    44
  9240   -88  -133    57
  9250  -100   -80    43
  9260   -77  -119    54
  9270   -69   -90    48
  9280   -88  -129    32
  9290   -81  -108    56
  9300  -105  -105    77
  9310   -81  -101    36
  9320   -91  -118    65
  9330   -71   -98    70
  9340   -79  -109    53
  9350   -82  -106    61
  9360   -99  -115    79
  9370   -73  -105    53
  9380   -75  -112    59
  9390   -99  -114    50
  9400   -79  -101    54
  9410   -84  -102    49
  9420   -98  -110    39
  9430   -75  -110    45
  9440   -75  -108    41
  9450   -82  -114    53
  9460   -88  -107    63
  9470   -80   -97    54
  9480  -119  -104    60
  9490   -91  -113    36
  9500   -68   -88    53
  9510  -105  -109    58
  9520   -84   -99    44
  9530   -75  -113    42
  9540   -66   -86    38
  9550   -64  -121    56
  9560   -73  -120    53
  9570   -88  -111    42
  9580   -96  -114    34
  9590   -92  -119    42
  9600   -90  -100    32
  9610   -84  -116    65
  9620   -89   -98    53
  9630   -56   -98    57
  9640   -98  -113    48
  9650   -66  -112    26
  9660   -89   -94    40
  9670   -85  -119    62
  9680   -75  -101    51
  9690   -85  -115    33
  9700   -71   -96    57
  9710   -80  -105    39
  9720   -87  -123    52
  9730   -95  -116    45
  9740   -83  -114    69
  9750   -82  -102    41
  9760   -92   -96    55
  9770   -83  -102    56
  9780   -92  -102    50
  9790   -97  -125    44
  9800   -89  -104    45
  9810  -110   -97    26
  9820   -81  -105    53
  9830   -78   -99    48
  9840   -89  -108    51
  9850   -79  -110    49
  9860   -86  -111    45
  9870   -96   -95    42
  9880  -105  -110    40
  9890   -92   -99    35
  9900  -103  -104    64
  9910   -70  -108    54
  9920  -100  -113    58
  9930   -93  -108    73
  9940  -101   -97    46
  9950   -83  -104    29
  9960   -77  -100    44
  9970   -81   -99    58
  9980  -106   -98    48
  9990  -101  -127    80
 10000   -94  -111    73
 10010   -97  -106    46
 10020   -99  -104    57
 10030   -90  -107    39
 10040   -86  -108    51
 10050   -95  -113    55
 10060   -87  -104    46
 10070   -77   -96    39
 10080   -87  -100    60
 10090   -89  -128    30
 10100   -78  -112    44
 10110   -91  -129    70
 10120   -73   -93    42
 10130   -75   -94    43
 10140   -93  -106    60
 10150   -69  -105    32
 10160   -94   -93    60
 10170   -89  -102    36
 10180   -87  -109    31
 10190  -100   -94    42
 10200   -81  -114    54
 10210  -100  -107    47
 10220   -61   -97    42
 10230   -83   -89    64
 10240   -78  -111    56
 10250   -83  -109    46
 10260   -85  -100    66
 10270   -69   -89    60
 10280   -93   -96    62
 10290   -96  -109    54
 10300   -83  -112    50
 10310   -86  -108    60
 10320   -70  -118    31
 10330   -83  -126    52
 10340   -69  -105    53
 10350   -93  -106    46
 10360   -76  -121    51
 10370   -74   -91    30
 10380   -97   -99    45
 10390   -88  -128    42
 10400   -78  -110    43
 10410   -91  -111    67
 10420   -92  -110    47
 10430   -78  -115    64
 10440   -75  -124    30
 10450   -84  -108    54
 10460  -101   -88    51
 10470   -85  -105    42
 10480   -86   -86    39
 10490   -80   -97    35
 10500   -90  -126    47
 10510   -65  -109    45
 10520   -87  -103    45
 10530   -93  -122    59
 10540   -74  -103    64
 10550   -90  -103    59
 10560   -93  -106    60
 10570   -88   -98    40
 10580   -79   -99    24
 10590   -96  -138    55
 10600   -82  -123    59
 10610   -56   -84    41
 10620   -93  -119    53
 10630   -79  -115    60
 10640   -80   -98    59
 10650   -68  -104    50
 10660   -91  -126    71
 10670   -83  -105    44
 10680   -98  -116    58
 10690   -78  -106    64
 10700   -86  -121    41
 10710   -86  -112    53
 10720   -91   -99    37
 10730   -61  -108    36
 10740  -101   -99    42
 10750   -85  -117    42
 10760   -80  -127    58
 10770   -69  -107    46
 10780   -84   -98    62
 10790   -95  -121    52
 10800  -103   -81    44
 10810   -71   -94    60
 10820   -85  -116    48
 10830   -90  -107    47
 10840   -74  -123    46
 10850   -77  -115    27
 10860   -93   -99    39
 10870   -71   -97    36
 10880  -102   -87    43
 10890   -78  -121    51
 10900   -89  -129    57
 10910   -70  -105    55
 10920   -70  -111    28
 10930   -96  -112    60
 10940   -78  -113    48
 10950   -84  -109    54
 10960   -63  -105    42
 10970   -99  -117    50
 10980   -77   -97    44
 10990   -86   -96    41
 11000  -102   -98    54
 11010   -93  -105    61
 11020   -91  -102    16
 11030   -84  -108    48
 11040   -98  -101    49
 11050   -69  -108    68
 11060   -83  -112    52
 11070   -77   -96    54
 11080   -94  -103    30
 11090   -88  -111    59
 11100   -73  -116    63
 11110   -91  -109    61
 11120   -85  -103    52
 11130   -96  -116    57
 11140   -78  -118    52
 11150   -80   -92    33
 11160   -88  -107    31
 11170   -89  -108    52
 11180   -71   -92    53
 11190   -91  -110    62
 11200   -84  -116    67
 11210   -83  -106    61
 11220   -65  -120    60
 11230   -91  -127    60
 11240   -98  -104    40
 11250  -104  -105    31
 11260   -76  -109    47
 11270  -105  -112    67
 11280   -70  -122    28
 11290   -80  -106    61
 11300   -89   -84    51
 11310   -73  -105    57
 11320   -86  -117    53
 11330   -99   -90    43
 11340   -89   -99    50
 11350   -93  -106    59
 11360   -87   -95    30
 11370   -83   -93    65
 11380   -79  -106    34
 11390   -78  -103    55
 11400   -73  -109    44
 11410   -78  -103    40
 11420  -114  -115    57
 11430   -65  -109    54
 11440   -97   -99    53
 11450   -77  -110    67
 11460   -87  -119    66
 11470   -79   -89    47
 11480   -85  -112    41
 11490   -85   -97    66
 11500   -87   -98    40
 11510   -72   -93    46
 11520   -89  -100    52
 11530   -70  -116    64
 11540   -86  -129    67
 11550   -80   -99    43
 11560   -96  -116    69
 11570   -76  -120    23
 11580   -92  -103    71
 11590   -84  -115    36
 11600   -70  -112    36
 11610   -82  -119    47
 11620   -75  -102    52
 11630   -63   -98    58
 11640   -85  -121    66
 11650   -96  -102    63
 11660   -82  -109    49
 11670  -114  -111    58
 11680   -87  -120    57
 11690  -103  -129    43
 11700   -94  -105    34
 11710   -74  -100    49
 11720  -110   -99    70
 11730   -84   -97    29
 11740   -86  -101    59
 11750   -67  -120    59
 11760   -84  -101    57
 11770   -96  -111    31
 11780   -85  -101    46
 11790   -94   -93    56
 11800   -72  -103    69
 11810   -83  -112    34
 11820   -78  -107    51
 11830  -105   -94    33
 11840   -86   -95    65
 11850   -84  -127    45
 11860   -79  -110    73
 11870   -78   -97    61
 11880   -74  -110    53
 11890   -84  -108    54
 11900   -66  -126    32
 11910   -95  -116    54
 11920   -80  -116    49
 11930   -94  -116    57
 11940   -89  -113    55
 11950   -86  -101    79
 11960   -91  -114    70
 11970   -84  -113    64
 11980  -113   -97    81
 11990   -86  -106    40
 12000   -61  -101    40
 12010   -87  -117    45
 12020   -81   -98    47
 12030   -64  -100    38
 12040  -106  -103    40
 12050   -87  -115    51
 12060   -84  -105    33
 12070   -82  -112    63
 12080   -91  -120    46
 12090   -84  -107    65
 12100   -91   -98    30
 12110   -82  -117    50
 12120   -86  -105    56
 12130   -96  -133    56
 12140   -93   -96    56
 12150   -88  -108    23
 12160   -91   -98    35
 12170  -103  -120    71
 12180   -80   -97    33
 12190   -67  -101    66
 12200   -87   -97    64
 12210   -47  -111    55
 12220   -95  -110    52
 12230   -88   -91    79
 12240   -73  -105    66
 12250   -78  -117    33
 12260   -82   -99    40
 12270   -91   -90    34
 12280   -83  -109    36
 12290   -86   -93    49
 12300   -78   -87    54
 12310  -100  -121    54
 12320   -93   -89    38
 12330   -89  -128    49
 12340   -95  -115    65
 12350   -81  -106    56
 12360   -78   -97    63
 12370   -92  -106    59
 12380   -93  -112    53
 12390   -79   -98    45
 12400   -68  -103    58
 12410   -86   -86    54
 12420   -85  -112    45
 12430   -74  -108    32
 12440   -77  -105    26
 12450   -76   -92    72
 12460   -70   -96    32
 12470   -86  -112    35
 12480   -94   -97    49
 12490   -77  -103    57
 12500   -82  -111    51
 12510   -78  -106    65
 12520   -73  -111    61
 12530  -106  -112    55
 12540   -74   -97    44
 12550  -101  -113    43
 12560  -111  -111    42
 12570   -80   -98    54
 12580   -79  -119    48
 12590   -82  -124    67
 12600   -84   -95    61
 12610   -86  -106    57
 12620   -77  -109    52
 12630   -88   -96    44
 12640   -92  -110    49
 12650   -84  -101    65
 12660   -83  -107    46
 12670   -86  -112    53
 12680   -83  -117    35
 12690   -74  -117    35
 12700   -82  -121    52
 12710   -77  -107    30
 12720  -102  -109    46
 12730   -71  -106    46
 12740   -70  -110    62
 12750   -76   -99    44
 12760   -81  -110    61
 12770   -82  -113    51
 12780   -76   -97    45
 12790  -100   -96    44
 12800   -89   -81    48
 12810   -77  -131    51
 12820   -99   -97    57
 12830   -81   -93    50
 12840   -84  -106    47
 12850   -78   -91    49
 12860   -93  -105    37
 12870  -101  -113    24
 12880   -80  -115    41
 12890   -67  -106    51
 12900   -73   -99    67
 12910   -95  -103    55
 12920   -97   -94    55
 12930   -87   -84    46
 12940   -76   -90    49
 12950   -87  -133    53
 12960   -76  -101    59
 12970   -80  -105    62
 12980   -85  -102    37
 12990   -89  -101    56
 13000   -93  -117    49
 13010   -59   -95    35
 13020   -96  -100    50
 13030   -86  -109    60
 13040   -81  -104    72
 13050   -86  -117    46
 13060   -80  -115    46
 13070   -82  -102    37
 13080   -92  -109    64
 13090   -87  -106    59
 13100   -83  -107    54
 13110   -88  -110    51
 13120   -80  -107    53
 13130   -83  -101    59
 13140  -111  -114    50
 13150   -98  -110    75
 13160   -75  -103    29
 13170   -84  -112    56
 13180   -86  -132    44
 13190   -82   -99    52
 13200   -91  -122    60
 13210   -93   -98    59
 13220   -80   -96    36
 13230   -63  -118    43
 13240   -97  -108    31
 13250   -98  -107    39
 13260   -89  -108    29
 13270   -80  -114    29
 13280   -90  -104    31
 13290   -88   -98    23
 13300   -83   -96    38
 13310   -87  -108    79
 13320   -96   -96    47
 13330   -66  -102    37
 13340   -84   -91    59
 13350   -87  -104    49
 13360   -87  -100    26
 13370   -84  -112    51
 13380   -93  -118    38
 13390   -79  -101    15
 13400   -97   -93    52
 13410   -78  -100    68
 13420   -69   -99    60
 13430   -77   -96    75
 13440   -93  -113    47
 13450   -76   -91    36
 13460   -93  -102    48
 13470   -77  -101    43
 13480  -100  -113    42
 13490   -69  -113    40
 13500   -68  -116    47
 13510   -82  -108    47
 13520   -69  -102    39
 13530   -82   -94    53
 13540  -101  -100    78
 13550   -84  -130    51
 13560   -96  -104    59
 13570   -76  -120    39
 13580   -90  -101    29
 13590   -91  -109    53
 13600  -111   -89    34
 13610   -85   -97    42
 13620   -97  -101    53
 13630   -76   -93    56
 13640   -86  -113    36
 13650   -93  -101    33
 13660   -94   -96    41
 13670   -66  -125    58
 13680   -96  -109    41
 13690   -81  -107    50
 13700   -85  -102    46
 13710   -97  -121    49
 13720   -90   -97    57
 13730   -92   -97    34
 13740   -79   -99    43
 13750   -81  -101    66
 13760   -68  -112    48
 13770   -87  -122    44
 13780   -95  -106    66
 13790   -76  -106    46
 13800   -82  -114    52
 13810   -94  -104    23
 13820   -87  -116    58
 13830   -77  -110    46
 13840   -84  -100    34
 13850   -82  -100    57
 13860   -98  -101    42
 13870   -89  -107    47
 13880   -93  -103    59
 13890   -80  -106    30
 13900   -80  -100    46
 13910   -89  -114    34
 13920   -71  -101    56
 13930   -89  -111    66
 13940   -82   -93    59
 13950   -81  -107    54
 13960   -88   -90    61
 13970   -82   -95    53
 13980   -69  -121    53
 13990   -85  -111    68
 14000   -93  -112    47
 14010   -92   -99    31
 14020   -81  -107    49
 14030   -83  -124    47
 14040   -75  -102    26
 14050   -98  -119    60
 14060   -73  -110    43
 14070   -83  -107    51
 14080   -89  -111    57
 14090   -90  -104    53
 14100   -95  -119    32
 14110   -83  -111    55
 14120   -87  -110    48
 14130   -84  -106    62
 14140   -76  -104    36
 14150  -102  -118    51
 14160   -77  -117    45
 14170   -82  -106    43
 14180   -99  -108    26
 14190  -125   -97    28
 14200   -70  -100    61
 14210   -69  -102    47
 14220   -66  -106    63
 14230   -85  -117    27
 14240   -96  -107    52
 14250   -94   -88    23
 14260   -87  -105    45
 14270   -97   -87    50
 14280   -75  -105    37
 14290  -100   -86    58
 14300   -74  -102    53
 14310   -74   -98    45
 14320  -101  -132    41
 14330   -71  -121    65
 14340   -84  -100    47
 14350   -98  -117    57
 14360   -97  -107    48
 14370   -98   -99    46
 14380   -94  -106    67
 14390   -61   -96    39
 14400   -90  -119    59
 14410  -105   -97    48
 14420   -84  -118    53
 14430  -104   -93    31
 14440   -90  -108    54
 14450  -104   -88    47
 14460   -87  -106    40
 14470   -67  -122    66
 14480   -79  -123    28
 14490   -77  -114    31
 14500   -63  -103    50
 14510   -65  -124    43
 14520   -88  -100    45
 14530   -79   -88    44
 14540   -89  -121    55
 14550   -82  -111    44
 14560   -76  -103    29
 14570   -79   -98    53
 14580   -79   -84    48
 14590   -78  -112    37
 14600   -63   -99    55
 14610   -84  -110    41
 14620   -84  -103    64
 14630   -78  -115    64
 14640   -82  -106    47
 14650   -88  -114    38
 14660   -97  -129    44
 14670   -89  -102    56
 14680   -85  -115    47
 14690   -74  -107    50
 14700   -89  -114    67
 14710   -91  -104    36
 14720   -86  -113    46
 14730   -69  -106    60
 14740   -96  -129    43
 14750  -104  -100    64
 14760   -90   -89    61
 14770   -82  -110    40
 14780  -110  -105    43
 14790   -84  -106    21
 14800   -93  -115    44
 14810   -77  -102    35
 14820   -80   -90    56
 14830   -86  -105    54
 14840   -96  -112    47
 14850   -73  -109    48
 14860  -100  -108    52
 14870   -93  -105    66
 14880   -93  -119    60
 14890   -77  -109    70
 14900  -107  -115    55
 14910   -86   -98    25
 14920   -76  -102    50
 14930   -90  -102    50
 14940   -94   -99    77
 14950   -87  -119    36
 14960   -91   -96    41
 14970  -103  -106    51
 14980   -87  -103    40
 14990  -115  -115    37
 15000   -75  -115    37
 15010   -95  -102    56
 15020   -95  -120    51
 15030   -72  -131    29
 15040   -61  -122    58
 15050   -77  -107    55
 15060   -82   -99    32
 15070   -85   -96    56
 15080   -72  -106    46
 15090   -89  -109    59
 15100   -88  -119    44
 15110   -91  -119    50
 15120   -83   -97    46
 15130   -97  -102    43
 15140   -87  -101    42
 15150  -103  -114    51
 15160   -93  -113    42
 15170   -96   -95    60
 15180   -78  -133    42
 15190   -73   -97    44
 15200   -86  -113    45
 15210   -88  -121    58
 15220   -74   -89    33
 15230  -100  -117    35
 15240   -97  -101    66
 15250   -71  -101    43
 15260   -86  -112    45
 15270   -95  -101    70
 15280  -105  -114    87
 15290   -94   -90    42
 15300   -68   -98    47
 15310   -89  -110    41
 15320   -99   -96    71
 15330   -82  -106    54
 15340   -88   -96    31
 15350   -87  -108    44
 15360   -80  -116    59
 15370   -87   -98    41
 15380   -96  -124    44
 15390   -96  -107    56
 15400   -72   -86    33
 15410   -68   -91    40
 15420   -92  -107    61
 15430   -89   -97    70
 15440   -85   -99    40
 15450   -80  -106    49
 15460   -84  -103    50
 15470   -87   -94    55
 15480   -99  -103    61
 15490   -79  -106    41
 15500   -99  -123    54
 15510   -77  -100    46
 15520   -88  -121    49
 15530   -90   -94    56
 15540   -87  -103    58
 15550   -73  -106    47
 15560  -107   -96    35
 15570   -91  -105    42
 15580   -77  -108    38
 15590   -78  -125    56
 15600   -74  -105    41
 15610   -90   -93    45
 15620   -74   -91    36
 15630   -76  -122    48
 15640   -66   -97    47
 15650   -85  -111    65
 15660   -81  -101    49
 15670   -90   -96    39
 15680  -102  -117    50
 15690   -88   -94    47
 15700   -84  -105    63
 15710   -83  -101    59
 15720   -78  -104    48
 15730   -90  -123    43
 15740   -91   -99    46
 15750   -93  -117    67
 15760   -89   -99    28
 15770   -96  -104    63
 15780   -78   -99    68
 15790   -88  -108    27
 15800   -85  -103    36
 15810   -90  -108    37
 15820   -86  -116    41
 15830   -62  -113    69
 15840   -86  -115    44
 15850   -78   -97    45
 15860   -94  -120    60
 15870   -69  -109    59
 15880   -78  -123    42
 15890   -79  -110    36
 15900   -79  -108    36
 15910   -97  -115    68
 15920   -96  -112    54
 15930   -91   -98    62
 15940   -68  -110    44
 15950   -80  -124    49
 15960   -92  -104    37
 15970   -99   -99    50
 15980   -98  -110    43
 15990   -71  -125    54
 16000   -85  -102    36
 16010   -80  -112    41
 16020   -96  -118    33
 16030   -90   -98    39
 16040   -91  -120    43
 16050  -114  -145    33
 16060   -74  -116    45
 16070   -83  -107    33
 16080   -86   -86    36
 16090   -78  -108    39
 16100   -83  -120    44
 16110   -83  -111    40
 16120   -84  -120    56
 16130   -82  -116    41
 16140   -89   -89    55
 16150   -90  -129    47
 16160   -83  -110    46
 16170  -102  -105    56
 16180   -86  -101    53
 16190   -78  -101    45
 16200   -84  -111    37
 16210   -80   -90    24
 16220   -85  -118    52
 16230  -102  -111    59
 16240   -73  -113    27
 16250   -89  -110    43
 16260   -82  -116    46
 16270   -96  -125    44
 16280   -78  -124    49
 16290   -85  -102    30
 16300   -96  -119    24
 16310  -103  -119    52
 16320   -92  -113    54
 16330   -77   -99    33
 16340   -92   -91    57
 16350  -100   -96    37
 16360   -91  -119    42
 16370   -72  -110    48
 16380   -71  -102    42
 16390  -100  -126    51
 16400   -71   -86    39
 16410   -96  -118    40
 16420   -76  -109    53
 16430   -88  -107    65
 16440   -96  -111    51
 16450   -64  -100    53
 16460   -77  -117    41
 16470   -75  -114    58
 16480   -97  -115    53
 16490   -95  -126    31
 16500   -92   -88    53
 16510   -94  -117    41
 16520   -89  -115    47
 16530   -88  -113    31
 16540   -82  -116    51
 16550   -72  -121    42
 16560   -72   -98    36
 16570   -81  -108    57
 16580   -86  -108    57
 16590  -112  -104    71
 16600   -67  -101    43
 16610   -95  -124    37
 16620   -71  -101    37
 16630   -92  -118    51
 16640   -83  -108    57
 16650   -80  -104    47
 16660   -83   -99    50
 16670   -74  -120    63
 16680   -94  -108    31
 16690   -98  -117    51
 16700   -65  -129    60
 16710   -66  -110    61
 16720   -90  -110    58
 16730  -105  -100    52
 16740   -77   -92    66
 16750   -87  -110    36
 16760   -99   -99    62
 16770   -90  -116    51
 16780   -84   -99    68
 16790  -116  -100    71
 16800   -77   -98    48
 16810  -110  -123    41
 16820   -72  -109    40
 16830   -94  -113    56
 16840   -88  -114    43
 16850   -90   -90    55
 16860   -90  -118    63
 16870   -86   -98    55
 16880   -86  -110    52
 16890   -99  -115    57
 16900  -104   -98    35
 16910   -88  -116    45
 16920  -102  -109    57
 16930   -72  -114    44
 16940   -79   -96    31
 16950   -78  -110    46
 16960   -90   -91    54
 16970   -85  -128    49
 16980   -86  -102    55
 16990   -83   -88    30
 17000   -77  -111    50
 17010   -67  -101    32
 17020  -101  -105    39
 17030  -100  -109    55
 17040   -91  -108    55
 17050   -93  -126    36
 17060   -99  -107    47
 17070   -85  -125    43
 17080   -86  -106    40
 17090   -98  -111    45
 17100   -81  -104    51
 17110   -81  -104    48
 17120   -79  -100    38
 17130   -90  -104    53
 17140   -69  -111    51
 17150   -77   -96    47
 17160   -76  -107    29
 17170   -72  -112    37
 17180   -70   -96    47
 17190   -93  -103    50
 17200   -99   -92    56
 17210   -69   -94    37
 17220   -70  -114    69
 17230   -83  -112    47
 17240   -85  -114    56
 17250   -87   -90    50
 17260   -86  -118    37
 17270   -82  -109    46
 17280   -77  -105    70
 17290   -81   -97    51
 17300   -83   -87    33
 17310   -71  -120    32
 17320   -80  -119    61
 17330   -75  -134    36
 17340   -83  -110    84
 17350   -91  -130    67
 17360   -86  -111    71
 17370   -99   -99    54
 17380   -83  -116    37
 17390   -74   -97    32
 17400  -100  -109    46
 17410   -64   -91    49
 17420   -82  -102    38
 17430   -87  -102    49
 17440   -78  -105    63
 17450   -69  -116    27
 17460   -93  -111    58
 17470   -92  -120    41
 17480   -62  -109    36
 17490   -88  -110    40
 17500  -103   -92    25
 17510   -81   -90    49
 17520  -114  -111    49
 17530   -94  -113    35
 17540   -94  -110    45
 17550   -90  -100    57
 17560   -79  -114    46
 17570   -91  -112    56
 17580   -71  -109    46
 17590   -88  -116    37
 17600   -86  -116    29
 17610   -91  -116    40
 17620   -82  -101    48
 17630   -88  -117    22
 17640   -93  -102    67
 17650   -92  -116    49
 17660   -87  -113    57
 17670   -99  -115    55
 17680   -86  -111    34
 17690   -80  -102    42
 17700   -89  -109    43
 17710   -72  -102    55
 17720   -97   -99    51
 17730   -69  -100    43
 17740   -90   -98    63
 17750   -77  -109    49
 17760   -78  -100    76
 17770  -115  -123    47
 17780   -70  -105    37
 17790   -75  -114    42
 17800   -74  -104    48
 17810   -99  -112    36
 17820   -97  -115    50
 17830   -92  -106    67
 17840   -77  -112    33
 17850  -103  -122    60
 17860   -96  -108    63
 17870   -76  -100    48
 17880   -86  -119    68
 17890   -79  -123    53
 17900   -74  -102    46
 17910   -69  -108    71
 17920   -98  -110    64
 17930   -91  -114    56
 17940   -61  -108    56
 17950   -79  -110    54
 17960   -99  -119    65
 17970   -81  -116    60
 17980  -104  -105    32
 17990  -105  -101    13
 18000   -88  -114    45
 18010  -105  -102    67
 18020   -82  -116    53
 18030   -88   -94    39
 18040   -77  -105    42
 18050   -82   -81    51
 18060   -69   -96    37
 18070   -92  -108    36
 18080   -82  -104    56
 18090   -77  -108    64
 18100   -90  -107    45
 18110   -81  -109    14
 18120   -95   -96    24
 18130   -86  -116    60
 18140   -89  -115    19
 18150  -104   -89    61
 18160   -80  -103    62
 18170   -59   -97    35
 18180   -68  -119    48
 18190   -71  -112    51
 18200   -72   -90    67
 18210   -95  -102    45
 18220   -85  -110    64
 18230   -94  -122    56
 18240   -76   -81    40
 18250   -89  -112    42
 18260   -87   -92    28
 18270   -60   -90    46
 18280   -80   -96    47
 18290   -81  -110    31
 18300   -77  -106    59
 18310   -93  -111    61
 18320   -84  -109    60
 18330   -84  -127    38
 18340   -71  -109    36
 18350   -95   -99    34
 18360   -89   -93    65
 18370   -84  -101    64
 18380   -88  -127    60
 18390   -76  -101    37
 18400   -93  -119    60
 18410   -75  -112    38
 18420   -91  -109    46
 18430   -91  -122    46
 18440  -100  -102    49
 18450   -82  -108    52
 18460   -98  -118    58
 18470   -75  -104    54
 18480   -94  -100    51
 18490   -78  -111    57
 18500   -75  -102    58
 18510  -100  -104    39
 18520   -84  -114    42
 18530   -91  -126    40
 18540   -75   -97    60
 18550   -67  -103    57
 18560   -81   -93    69
 18570   -88  -103    50
 18580   -74  -115    43
 18590   -86  -110    67
 18600   -92  -109    39
 18610   -89  -111    52
 18620   -76  -119    43
 18630   -91  -101    62
 18640  -104   -96    44
 18650   -78   -99    36
 18660   -86   -93    54
 18670   -87  -134    48
 18680   -83  -117    42
 18690   -77  -119    56
 18700  -107  -123    40
 18710   -66  -109    72
 18720   -85  -104    44
 18730   -85  -107    39
 18740   -77  -106    66
 18750   -76  -106    27
 18760  -100  -110    51
 18770   -94  -111    35
 18780   -87   -98    58
 18790   -87   -90    37
 18800   -93   -89    48
 18810  -107  -108    72
 18820   -79  -110    44
 18830   -90  -110    39
 18840  -115  -105    34
 18850   -71  -115    57
 18860   -83  -115    45
 18870   -86  -101    54
 18880   -74   -89    55
 18890   -71   -94    44
 18900   -89   -96    47
 18910   -84  -108    47
 18920   -81  -105    52
 18930   -77   -97    60
 18940   -74  -105    41
 18950  -108  -111    51
 18960   -82  -111    53
 18970  -105  -108    58
 18980   -66  -120    55
 18990  -103  -115    34
 19000   -78  -102    48
 19010   -83  -123    42
 19020   -86  -117    54
 19030   -85  -105    57
 19040   -97  -108    21
 19050  -110  -110    59
 19060   -79   -99    58
 19070   -85  -102    58
 19080   -85  -103    39
 19090   -86  -106    45
 19100   -72  -105    37
 19110   -86  -117    52
 19120   -86   -88    51
 19130   -96  -101    40
 19140  -102  -114    42
 19150   -80  -127    40
 19160  -103  -120    33
 19170   -82  -109    52
 19180   -75   -90    56
 19190   -78  -102    43
 19200   -84  -109    52
 19210   -82   -92    57
 19220  -101  -117    47
 19230   -85  -100    46
 19240   -90  -104    51
 19250   -86  -106    52
 19260   -73   -92    48
 19270   -89  -126    51
 19280  -111  -126    54
 19290   -79  -108    33
 19300   -77  -114    54
 19310   -88   -98    58
 19320   -80  -112    20
 19330   -84  -112    51
 19340   -84  -107    50
 19350   -64  -118    36
 19360   -89  -106    37
 19370   -76  -110    45
 19380   -83  -113    63
 19390   -95  -120    69
 19400   -81   -91    60
 19410   -76  -104    31
 19420   -80  -120    54
 19430   -96  -105    48
 19440   -85   -97    59
 19450   -84  -107    30
 19460   -90  -102    31
 19470   -89  -110    47
 19480   -90  -120    68
 19490   -88  -118    71
 19500   -83  -113    48
 19510   -84  -106    60
 19520   -56  -119    46
 19530   -97  -113    71
 19540   -71  -106    62
 19550   -71   -94    51
 19560   -83  -118    47
 19570   -85  -107    65
 19580  -102  -114    53
 19590   -77  -102    46
 19600   -92  -106    62
 19610   -89  -118    38
 19620   -89  -106    68
 19630   -86  -106    51
 19640   -95  -118    56
 19650   -91  -110    55
 19660   -94  -117    60
 19670   -80   -93    58
 19680  -104  -117    46
 19690   -82   -99    64
 19700   -87  -108    33
 19710   -89  -121    57
 19720   -64   -95    41
 19730   -81   -90    33
 19740   -88  -113    48
 19750   -86  -116    45
 19760  -102  -123    52
 19770  -105  -105    55
 19780   -78  -100    50
 19790   -90  -109    44
 19800   -84   -95    61
 19810   -80   -91    45
 19820   -73  -116    54
 19830   -92  -108    26
 19840   -74  -103    43
 19850   -88  -105    63
 19860  -106   -93    57
 19870   -86  -101    69
 19880   -88  -105    48
 19890   -85  -106    58
 19900   -91  -116    57
 19910   -86  -116    58
 19920   -86  -102    18
 19930   -92  -111    70
 19940   -89  -116    68
 19950   -83  -116    31
 19960   -95   -95    40
 19970  -102   -98    31
 19980   -92  -122    51
 19990   -82  -119    47
 20000   -91  -120    48
 20010   -92  -113    41
 20020   -76   -92    52
 20030   -83  -114    50
 20040   -85  -104    41
 20050   -67   -98    54
 20060   -83   -95    67
 20070   -70  -104    81
 20080   -86  -107    38
 20090   -80  -114    56
 20100   -98  -105    57
 20110   -76  -118    39
 20120   -66  -112    48
 20130   -81  -109    53
 20140   -75   -97    40
 20150   -97  -117    41
 20160   -92  -116    47
 20170   -94  -101    67
 20180   -86  -101    36
 20190  -100  -109    57
 20200   -93   -99    58
 20210   -64   -89    52
 20220   -88   -93    68
 20230   -91  -120    50
 20240   -92  -115    34
 20250   -90  -111    62
 20260   -83  -100    30
 20270   -63  -107    56
 20280   -79  -102    51
 20290   -80  -113    49
 20300   -77  -118    33
 20310  -100   -98    51
 20320   -93  -104    49
 20330   -83   -98    48
 20340   -94  -124    42
 20350   -71  -107    54
 20360   -66  -116    40
 20370   -83   -96    44
 20380   -95  -132    51
 20390   -79  -103    66
 20400   -70   -95    62
 20410   -75  -113    60
 20420   -62  -110    48
 20430   -77  -103    68
 20440   -70   -94    57
 20450   -58  -126    53
 20460   -78  -114    59
 20470   -86  -124    39
 20480   -96  -113    23
 20490   -69  -118    33
 20500   -74   -89    47
 20510   -90  -113    36
 20520   -81  -106    54
 20530   -88   -94    71
 20540   -88  -114    40
 20550   -91  -110    55
 20560   -81   -95    42
 20570   -99  -124    48
 20580   -92  -117    68
 20590   -77  -113    67
 20600   -91   -88    57
 20610  -113  -131    57
 20620   -98   -96    42
 20630   -86   -93    60
 20640   -91  -104    65
 20650   -95  -115    52
 20660   -92  -100    51
 20670   -67  -100    51
 20680   -89  -104    28
 20690   -90  -107    52
 20700   -79  -104    37
 20710   -79  -106    36
 20720   -90   -97    53
 20730   -74   -89    56
 20740   -86  -127    37
 20750  -100  -100    56
 20760  -100  -102    57
 20770  -100  -108    59
 20780   -86  -107    49
 20790   -88  -119    42
 20800  -118  -111    59
 20810   -94  -100    38
 20820   -79  -108    41
 20830   -58   -99    30
 20840  -105   -81    71
 20850   -81  -100    37
 20860   -92  -106    58
 20870   -95  -109    36
 20880   -99  -101    56
 20890  -102  -110    51
 20900   -87   -95    65
 20910   -78  -103    54
 20920  -103  -112    44
 20930   -82  -104    26
 20940   -80   -97    56
 20950   -94  -109    46
 20960   -78  -112    22
 20970   -60  -109    55
 20980   -63  -109    57
 20990   -71  -104    76
 21000   -82  -112    71
 21010   -75  -100    59
 21020   -79  -106    58
 21030   -80  -118    40
 21040   -87  -101    51
 21050   -71  -100    60
 21060   -80  -104    46
 21070   -90  -119    49
 21080   -78  -113    65
 21090   -85  -118    43
 21100   -78   -85    41
 21110   -85  -102    45
 21120   -75   -94    22
 21130   -75   -92    33
 21140   -92  -113    52
 21150   -76   -92    43
 21160   -61  -108    54
 21170   -93  -109    54
 21180   -93  -109    33
 21190   -84  -111    62
 21200   -92  -121    49
 21210   -78  -112    58
 21220   -63  -122    48
 21230   -65   -98    71
 21240   -62  -104    45
 21250   -86  -113    63
 21260   -95  -101    51
 21270   -74  -108    62
 21280   -64   -95    40
 21290   -76  -118    59
 21300   -93  -103    48
 21310   -96  -102    76
 21320   -79  -102    47
 21330   -88  -111    37
 21340   -84  -111    57
 21350   -80   -96    54
 21360   -99  -105    70
 21370   -78   -96    37
 21380   -83  -105    50
 21390   -87  -116    70
 21400   -91  -106    57
 21410   -83  -118    64
 21420   -83  -109    60
 21430   -78  -103    57
 21440   -83  -124    51
 21450   -87  -116    50
 21460   -97  -100    16
 21470   -77  -100    49
 21480   -94  -112    58
 21490   -76  -109    58
 21500   -91  -108    22
 21510  -100   -91    50
 21520   -64   -98    45
 21530   -73  -112    47
 21540   -78   -90    38
 21550   -92  -106    42
 21560   -90  -122    52
 21570   -88  -104    32
 21580   -85  -100    33
 21590   -91  -109    54
 21600  -104  -106    56
 21610   -92  -113    39
 21620   -83   -96    53
 21630   -85  -109    60
 21640  -109  -100    54
 21650   -97  -120    31
 21660   -86  -101    38
 21670   -93  -114    58
 21680   -86  -100    52
 21690   -93  -121    31
 21700  -106  -105    50
 21710   -80   -97    61
 21720   -82  -111    58
 21730   -89  -101    55
 21740  -110  -124    44
 21750   -85  -112    30
 21760   -83   -98    42
 21770   -90  -102    45
 21780  -108  -106    43
 21790   -80  -120    53
 21800   -85  -114    41
 21810   -88  -108    53
 21820   -76  -101    55
 21830   -78  -113    47
 21840   -90  -117    56
 21850   -91  -124    59
 21860   -77  -101    37
 21870   -78   -95    56
 21880   -75  -107    41
 21890   -88  -122    45
 21900   -78  -110    59
 21910  -100   -97    51
 21920   -75  -110    51
 21930   -69   -96    43
 21940   -94  -114    35
 21950  -108  -111    43
 21960   -74  -114    34
 21970   -71  -104    64
 21980   -88   -99    48
 21990   -77   -95    55
 22000   -97  -119    53
 22010  -111   -94    48
 22020   -77   -97    43
 22030   -87  -113    64
 22040   -75  -103    67
 22050   -94  -127    37
 22060   -80   -94    28
 22070   -85  -105    37
 22080   -99  -106    63
 22090   -89  -105    52
 22100   -72  -108    57
 22110   -78  -104    46
 22120   -66  -113    35
 22130   -89   -99    52
 22140   -85   -97    58
 22150   -93  -106    33
 22160   -79   -90    42
 22170  -102  -102    51
 22180   -88  -115    48
 22190   -65  -103    32
 22200   -83   -98    50
 22210   -82  -117    66
 22220   -93  -120    78
 22230   -82  -104    69
 22240  -108  -113    59
 22250   -82  -112    74
 22260   -91  -108    63
 22270   -70  -115    42
 22280   -91  -108    45
 22290  -104  -116    69
 22300   -92   -95    40
 22310   -86   -93    51
 22320   -88   -98    43
 22330   -72   -88    59
 22340   -68   -95    40
 22350   -96  -115    62
 22360   -75  -118    60
 22370   -76  -104    41
 22380   -55  -102    69
 22390   -74  -101    51
 22400   -81   -94    37
 22410   -86  -104    41
 22420   -88  -110    46
 22430   -95  -125    67
 22440   -88  -113    43
 22450   -87  -109    43
 22460   -97  -117    47
 22470   -85  -110    41
 22480   -95   -95    39
 22490  -100  -103    45
 22500  -101  -104    54
 22510   -75  -114    28
 22520   -95  -118    64
 22530  -104  -103    60
 22540   -70  -101    46
 22550   -73   -85    39
 22560   -93  -103    65
 22570  -107  -116    33
 22580   -97  -105    47
 22590   -85  -113    47
 22600   -81   -91    18
 22610   -88   -86    47
 22620   -91   -99    58
 22630   -85   -91    50
 22640   -96  -108    41
 22650   -89   -98    48
 22660  -106  -105    62
 22670   -92  -123    45
 22680   -87  -121    59
 22690   -74  -103    29
 22700   -93  -111    58
 22710   -90  -105    52
 22720   -87  -116    42
 22730  -101  -125    35
 22740   -94   -91    41
 22750   -80  -115    60
 22760   -81   -98    53
 22770   -93  -118    46
 22780   -74  -100    61
 22790   -72  -124    44
 22800   -79  -119    54
 22810   -77  -117    63
 22820   -73  -105    50
 22830   -63  -114    51
 22840   -75  -100    38
 22850   -97   -94    52
 22860   -70   -98    29
 22870   -95  -102    41
 22880   -91   -91    37
 22890   -86   -92    32
 22900   -73  -108    51
 22910   -73  -112    42
 22920   -93  -121    60
 22930   -76  -115    44
 22940   -83   -97    23
 22950   -85  -105    42
 22960   -82  -102    44
 22970   -88  -106    69
 22980   -85   -83    34
 22990   -97  -103    57
 23000   -81  -113    59
 23010   -75  -107    53
 23020   -86  -110    43
 23030   -85  -120    53
 23040   -80  -115    32
 23050   -74  -116    48
 23060   -76  -112    58
 23070   -89  -128    37
 23080   -81  -106    37
 23090   -83  -111    41
 23100   -75  -106    71
 23110   -89  -107    41
 23120   -86  -115    67
 23130   -84  -104    42
 23140   -79  -104    30
 23150   -91  -103    37
 23160   -98  -105    46
 23170   -89  -115    48
 23180   -86  -121    48
 23190   -95  -106    55
 23200   -91   -92    43
 23210   -78  -111    34
 23220   -83   -97    42
 23230   -88  -101    55
 23240   -81  -113    46
 23250   -74  -101    47
 23260   -88  -106    57
 23270   -78  -121    34
 23280   -71  -123    70
 23290   -89   -81    53
 23300   -99  -128    58
 23310   -89  -116    49
 23320   -82   -82    41
 23330   -84  -108    51
 23340   -74  -115    53
 23350   -64  -118    43
 23360   -70  -112    28
 23370   -88  -106    50
 23380   -95  -123    28
 23390   -90  -119    43
 23400   -81  -107    45
 23410   -90  -118    48
 23420   -90  -111    32
 23430   -92  -113    41
 23440   -82   -92    43
 23450   -85  -109    56
 23460   -88   -93    46
 23470   -97   -97    78
 23480   -89  -112    42
 23490   -69  -108    58
 23500   -70  -119    66
 23510   -83  -114    36
 23520   -76  -117    68
 23530   -83   -92    51
 23540   -69  -105    66
 23550   -90  -112    42
 23560   -77  -116    54
 23570   -87   -90    45
 23580   -84   -94    43
 23590   -81  -122    58
 23600   -85  -104    57
 23610   -74  -118    65
 23620   -91  -111    51
 23630   -67  -100    39
 23640   -94  -103    53
 23650   -77  -104    33
 23660   -62  -101    54
 23670   -91  -115    44
 23680   -69  -116    30
 23690   -71  -104    16
 23700   -79  -107    37
 23710   -89   -89    67
 23720   -97   -96    67
 23730   -72  -114    44
 23740   -98  -109    41
 23750   -72  -108    40
 23760   -96   -91    43
 23770   -78  -109    58
 23780   -87   -95    45
 23790   -81  -108    41
 23800  -115   -93    51
 23810   -63   -96    36
 23820   -77  -104    63
 23830   -99  -128    61
 23840   -66  -112    68
 23850   -93  -102    73
 23860   -69  -112    32
 23870   -85  -105    58
 23880   -85  -131    54
 23890   -79  -129    59
 23900   -92  -103    24
 23910   -90  -127    45
 23920   -88  -112    32
 23930   -98  -115    51
 23940   -85  -118    46
 23950   -91   -84    35
 23960   -89   -98    63
 23970   -96  -107    39
 23980   -99   -86    38
 23990   -85  -103    56
 24000   -85  -119    31
 24010   -84  -105    35
 24020   -97  -109    50
 24030   -63  -109    58
 24040   -90  -107    59
 24050   -89  -108    63
 24060   -70   -92    69
 24070   -84   -95    46
 24080   -98  -118    56
 24090   -68  -120    44
 24100   -83  -103    49
 24110   -78  -120    48
 24120   -96  -122    46
 24130   -92  -103    27
 24140   -92   -95    47
 24150   -87  -104    56
 24160   -84   -91    55
 24170   -84  -110    47
 24180   -85   -91    55
 24190   -86   -96    35
 24200   -94  -117    23
 24210   -89  -122    35
 24220   -84  -110    56
 24230   -56  -103    56
 24240   -86  -114    54
 24250   -83  -102    39
 24260   -84  -125    48
 24270   -99  -118    36
 24280   -96  -120    33
 24290   -77  -105    44
 24300   -79   -94    47
 24310   -84  -121    38
 24320   -79   -99    39
 24330   -77  -104    63
 24340   -82  -116    45
 24350   -82  -108    45
 24360   -85  -101    37
 24370   -81   -91    59
 24380   -91   -95    22
 24390   -91   -96    43
 24400   -88   -94    12
 24410   -96   -99    56
 24420   -91  -114    55
 24430   -90  -100    46
 24440   -90  -103    32
 24450   -71   -93    50
 24460  -103  -114    62
 24470   -74   -89    24
 24480   -66  -100    58
 24490   -87  -116    53
 24500   -74  -102    67
 24510   -76  -119    62
 24520   -68  -121    54
 24530   -71  -108    35
 24540   -95  -104    37
 24550   -83  -108    55
 24560   -75  -106    43
 24570   -66  -113    32
 24580   -96  -104    62
 24590   -71  -104    38
 24600   -83  -111    47
 24610   -96  -100    44
 24620   -68  -112    32
 24630   -80  -118    44
 24640   -94  -102    57
 24650   -85  -108    43
 24660   -91  -103    41
 24670   -88   -82    44
 24680   -68  -103    39
 24690   -66   -94    64
 24700  -106  -105    31
 24710  -104  -108    31
 24720   -83  -104    35
 24730   -77  -129    54
 24740   -88   -91    63
 24750  -116  -107    64
 24760   -70  -107    74
 24770   -83  -114    37
 24780   -70   -98    60
 24790   -95  -100    48
 24800   -83   -86    47
 24810   -87  -107    42
 24820   -81  -105    48
 24830   -83  -100    49
 24840   -85   -88    25
 24850   -92  -115    47
 24860   -75  -112    27
 24870   -87   -96    48
 24880   -86  -111    49
 24890   -70  -105    39
 24900   -72   -96    38
 24910   -84  -105    55
 24920   -84  -110    42
 24930   -83  -100    56
 24940   -71   -99    76
 24950   -86  -118    53
 24960   -70  -102    38
 24970   -79  -101    62
 24980   -90  -107    31
 24990   -75   -80    36
 25000   -79  -102    43
 25010   -84  -113    51
 25020   -85  -100    37
 25030   -82   -98    43
 25040   -86   -93    71
 25050   -86  -107    47
 25060   -90  -137    44
 25070   -78   -91    39
 25080   -82  -102    54
 25090   -72   -91    34
 25100   -88  -115    35
 25110   -76   -95    24
 25120   -77   -92    38
 25130   -75  -108    52
 25140   -59  -111    51
 25150   -81  -117    48
 25160   -95  -113    50
 25170   -87   -94    60
 25180   -82  -110    37
 25190   -66   -87    42
 25200  -101   -80    61
 25210   -61  -112    55
 25220   -80   -99    72
 25230   -72  -111    62
 25240  -111  -101    64
 25250  -112  -109    46
 25260  -106   -94    32
 25270   -71  -101    44
 25280   -78  -105    63
 25290   -98  -116    50
 25300   -71  -101    59
 25310   -60  -100    55
 25320   -81   -88    50
 25330   -81   -87    58
 25340   -75  -101    50
 25350   -94  -111    67
 25360   -91   -88    39
 25370  -111  -104    50
 25380   -94  -113    56
 25390   -83  -115    46
 25400   -88  -102    60
 25410  -101  -110    55
 25420   -84  -102    15
 25430   -84  -105    43
 25440   -74  -114    39
 25450   -85  -115    32
 25460   -79  -108    56
 25470   -88  -108    52
 25480   -76   -92    50
 25490   -75   -94    55
 25500   -82   -90    65
 25510   -68  -105    63
 25520   -79  -108    51
 25530   -68   -91    42
 25540   -77  -106    55
 25550   -90   -91    55
 25560   -69  -119    53
 25570   -72  -116    36
 25580   -88  -106    49
 25590   -77  -110    48
 25600   -95  -108    47
 25610   -75  -110    38
 25620   -73   -95    52
 25630   -82  -110    61
 25640   -70  -104    54
 25650   -73  -116    50
 25660   -79  -109    61
 25670   -85  -113    36
 25680   -86  -104    44
 25690   -75   -96    83
 25700   -73  -109    54
 25710   -82  -122    54
 25720   -72  -113    37
 25730   -78  -105    53
 25740   -85  -114    65
 25750   -87  -106    33
 25760   -80  -106    55
 25770   -90  -100    53
 25780   -67  -115    52
 25790   -89  -120    29
 25800   -99   -85    63
 25810   -94   -98    40
 25820   -92  -112    53
 25830   -86  -113    51
 25840   -73  -136    63
 25850  -111  -103    38
 25860   -80  -104    42
 25870  -101  -102    45
 25880   -84   -99    62
 25890   -90  -120    45
 25900   -65   -93    56
 25910   -95  -106    69
 25920   -89  -119    44
 25930   -70   -98    48
 25940   -82  -118    27
 25950   -78  -108    73
 25960   -96   -98    65
 25970   -92  -102    39
 25980   -90  -102    40
 25990   -80  -101    34
 26000   -95  -106    43
 26010   -86   -93    50
 26020   -78  -101    34
 26030   -74  -109    45
 26040   -84  -111    75
 26050   -73   -86    31
 26060   -70  -101    50
 26070   -72  -120    49
 26080   -93   -98    70
 26090   -91  -110    58
 26100   -76   -99    42
 26110  -104  -112    27
 26120  -105  -101    56
 26130   -73   -87    55
 26140   -94  -108    70
 26150   -88  -113    46
 26160   -85   -88    56
 26170   -83   -96    51
 26180   -99  -102    55
 26190  -110  -112    55
 26200   -72  -116    39
 26210   -78  -107    46
 26220   -71  -105    46
 26230   -96  -123    40
 26240   -70  -101    65
 26250   -96  -104    41
 26260   -72   -95    42
 26270   -95  -103    39
 26280   -77  -107    53
 26290   -80  -126    65
 26300   -81  -122    32
 26310   -78   -95    36
 26320   -79  -103    41
 26330   -88   -95    56
 26340   -74  -107    40
 26350   -86  -111    53
 26360   -98  -106    45
 26370   -94   -98    59
 26380   -81  -114    55
 26390   -84   -98    52
 26400  -100   -90    44
 26410   -84  -103    60
 26420   -84  -117    62
 26430   -75   -83    42
 26440   -85  -104    53
 26450   -98   -88    27
 26460   -93  -102    75
 26470   -75  -112    54
 26480   -80   -96    43
 26490   -67  -105    53
 26500   -98  -105    75
 26510   -97  -120    36
 26520   -94  -104    53
 26530   -76  -111    47
 26540   -83  -101    63
 26550   -81  -115    52
 26560   -86  -115    40
 26570   -88  -111    63
 26580   -82  -122    39
 26590   -78   -94    47
 26600   -79  -109    49
 26610   -95  -116    62
 26620  -101  -109    52
 26630  -107   -93    79
 26640   -69  -103    60
 26650  -114   -90    65
 26660   -79  -105    26
 26670   -64  -102    55
 26680   -78  -117    66
 26690   -89   -94    52
 26700   -85   -97    39
 26710   -67  -105    45
 26720   -89  -105    38
 26730   -86  -109    36
 26740   -71  -124    36
 26750   -99   -95    42
 26760   -82   -97    52
 26770   -77  -115    43
 26780   -93  -108    36
 26790   -89   -99    78
 26800   -74  -103    58
 26810   -77   -90    49
 26820   -80  -107    60
 26830   -85  -105    37
 26840   -91   -97    56
 26850   -88  -100    47
 26860   -88  -121    65
 26870  -108  -117    51
 26880  -111  -113    50
 26890   -59  -117    61
 26900   -90  -113    69
 26910   -83  -102    39
 26920   -71  -105    50
 26930   -87  -128    40
 26940   -69  -117    55
 26950   -85   -94    45
 26960  -102  -115    28
 26970   -94  -105    53
 26980   -90  -114    49
 26990   -68  -114    41
 27000   -62  -122    42
 27010   -91   -98    34
 27020   -87  -107    32
 27030   -83  -120    47
 27040  -100  -100    31
 27050   -74  -106    50
 27060   -74  -110    49
 27070   -81  -113    40
 27080   -85  -111    47
 27090   -87   -97    41
 27100  -105  -115    56
 27110   -67  -116    18
 27120   -88  -114    50
 27130   -89  -118    44
 27140  -100  -101    56
 27150   -77  -103    49
 27160   -88  -114    41
 27170   -71  -102    62
 27180   -80  -107    47
 27190   -84  -103    32
 27200   -71  -101    24
 27210   -88  -106    46
 27220   -90  -125    56
 27230   -91  -110    45
 27240   -82  -107    36
 27250   -84  -113    47
 27260   -93  -100    58
 27270   -90  -111    52
 27280   -85  -112    58
 27290   -84   -94    30
 27300   -89   -96    31
 27310   -79  -103    59
 27320   -96  -107    40
 27330   -93  -112    55
 27340   -81   -95    69
 27350   -71   -94    45
 27360   -99  -104    52
 27370   -90   -98    62
 27380   -76   -99    41
 27390   -70  -114    65
 27400   -90  -106    54
 27410  -106  -102    69
 27420   -93  -126    50
 27430   -94  -114    65
 27440   -88  -123    48
 27450   -66  -110    54
 27460   -71  -105    47
 27470   -84  -113    53
 27480   -77  -102    33
 27490   -81   -98    42
 27500   -67   -98    33
 27510   -81  -104    35
 27520   -99  -117    37
 27530   -91  -108    36
 27540   -72  -108    51
 27550   -86  -102    61
 27560   -80  -105    45
 27570   -83  -118    54
 27580   -66  -102    23
 27590   -86  -107    62
 27600   -75  -110    40
 27610   -96  -107    53
 27620   -65   -92    38
 27630   -95   -99    64
 27640   -68  -108    45
 27650   -79  -132    46
 27660   -55  -112    44
 27670   -79  -118    49
 27680   -82  -104    57
 27690   -84  -125    27
 27700   -77  -119    26
 27710   -86  -100    70
 27720   -78  -113    79
 27730   -98  -115    38
 27740   -77  -106    56
 27750   -87  -116    43
 27760   -98  -102    55
 27770   -93  -101    64
 27780   -87  -102    46
 27790   -81   -98    33
 27800   -80   -96    32
 27810   -81  -118    50
 27820   -99  -123    49
 27830   -89  -102    36
 27840   -87  -108    43
 27850   -99   -99    29
 27860  -101  -114    72
 27870  -100  -115    38
 27880   -98  -107    46
 27890   -95  -113    45
 27900   -92  -119    74
 27910   -89  -110    76
 27920  -105  -118    45
 27930   -74  -105    50
 27940   -94  -101    49
 27950   -78   -90    37
 27960   -95  -103    60
 27970   -93  -120    57
 27980   -76   -96    50
 27990   -80   -85    56
 28000   -90  -120    37
 28010   -78  -112    39
 28020   -84   -95    48
 28030   -79  -109    29
 28040   -77   -94    32
 28050   -90   -81    38
 28060   -95  -102    58
 28070   -82  -105    35
 28080   -75   -98    44
 28090   -89   -99    65
 28100   -68  -119    56
 28110   -75  -109    57
 28120   -81  -103    64
 28130   -88   -90    58
 28140   -70  -119    55
 28150   -90  -102    66
 28160   -76  -116    48
 28170   -84   -98    70
 28180   -78   -97    63
 28190   -86  -119    44
 28200   -72  -113    44
 28210   -75   -89    51
 28220   -93  -106    36
 28230   -99  -104    43
 28240   -81  -117    20
 28250   -70   -92    39
 28260   -89  -113    38
 28270   -82  -116    39
 28280   -85  -101    41
 28290   -63  -100    57
 28300   -88  -105    51
 28310   -93  -112    39
 28320   -73   -95    44
 28330   -97   -93    46
 28340   -87  -118    37
 28350   -95   -89    22
 28360   -80  -107    51
 28370   -75   -97    47
 28380   -91   -98    37
 28390   -73   -98    44
 28400   -86  -116    54
 28410   -87  -103    62
 28420   -77  -115    55
 28430   -77  -103    50
 28440   -89   -92    43
 28450   -69  -111    50
 28460   -62  -106    48
 28470   -80  -102    52
 28480   -89  -111    59
 28490   -71   -95    55
 28500   -92  -113    44
 28510   -87   -86    50
 28520   -75  -105    64
 28530   -70  -113    38
 28540   -86  -125    36
 28550   -78   -97    50
 28560   -85  -115    60
 28570   -63   -98    56
 28580   -83   -97    38
 28590   -71  -107    43
 28600  -104  -102    56
 28610   -93  -101    36
 28620   -88  -105    16
 28630   -82  -109    52
 28640   -74  -112    45
 28650   -95  -114    43
 28660   -68   -89    45
 28670   -79  -104    58
 28680   -71   -92    37
 28690   -75  -110    48
 28700   -96  -100    55
 28710   -69  -101    50
 28720   -92  -112    42
 28730   -93  -130    61
 28740   -65  -119    41
 28750   -82  -118    47
 28760   -83  -112    30
 28770   -90  -118    47
 28780   -88  -102    53
 28790   -89   -95    53
 28800   -84  -116    46
 28810   -79  -105    48
 28820   -75  -112    35
 28830   -63  -115    55
 28840   -98  -109    66
 28850   -75  -102    54
 28860   -74  -115    21
 28870   -77  -102    46
 28880   -91  -100    33
 28890   -67  -108    61
 28900   -76  -116    39
 28910   -65  -103    43
 28920   -82  -102    48
 28930   -81   -99    47
 28940   -84   -96    50
 28950   -91  -116    40
 28960   -86  -105    46
 28970   -98  -102    56
 28980   -92  -113    60
 28990   -62  -112    52
 29000   -74  -109    48
 29010   -80  -101    40
 29020   -77   -96    28
 29030   -78   -97    45
 29040   -65   -96    63
 29050   -73  -108    40
 29060   -84  -117    54
 29070   -72   -89    57
 29080   -71  -112    50
 29090   -70  -111    60
 29100   -96   -96    61
 29110   -89  -100    58
 29120   -85  -114    46
 29130   -86  -108    40
 29140   -56  -115    52
 29150   -96  -111    52
 29160   -88   -95    16
 29170   -97   -92    25
 29180   -79  -116    61
 29190   -82   -99    71
 29200   -77  -115    51
 29210   -87  -110    44
 29220   -96  -112    45
 29230   -74  -100    83
 29240   -91  -106    44
 29250   -76  -101    53
 29260   -76  -105    56
 29270   -85  -114    44
 29280   -99  -110    52
 29290   -89  -108    35
 29300   -93   -99    62
 29310   -78  -104    52
 29320   -79  -126    60
 29330   -86  -114    50
 29340   -83  -108    34
 29350   -97  -109    58
 29360   -62   -98    43
 29370   -77  -113    57
 29380   -93  -119    51
 29390   -75  -100    40
 29400   -78  -118    51
 29410   -85  -103    37
 29420   -74   -96    27
 29430   -66  -106    48
 29440   -61  -115    53
 29450  -104  -104    65
 29460   -98   -96    46
 29470   -76   -98    48
 29480   -85  -113    58
 29490   -87  -108    62
 29500   -88  -108    35
 29510   -89  -113    46
 29520   -85  -108    36
 29530   -82  -104    30
 29540   -83  -107    54
 29550   -70   -84    40
 29560  -107   -94    45
 29570   -74  -114    45
 29580   -91  -107    39
 29590   -79  -104    40
 29600   -77   -95    26
 29610   -65  -100    30
 29620   -87   -99    46
 29630   -74  -107    25
 29640   -77   -86    37
 29650   -70  -111    48
 29660   -93  -100    49
 29670   -85  -114    45
 29680   -94  -111    54
 29690  -103  -105    34
 29700  -103  -114    33
 29710   -93  -101    44
 29720   -79   -92    32
 29730   -84  -100    41
 29740  -111  -109    55
 29750   -80   -93    42
 29760   -90  -117    67
 29770   -90   -81    42
 29780   -95   -96    70
 29790   -89   -86    44
 29800   -71  -114    52
 29810   -80  -102    63
 29820   -88  -103    57
 29830   -88   -99    41
 29840   -78  -116    29
 29850   -79  -127    44
 29860   -89  -103    64
 29870  -100  -113    49
 29880   -93   -98    75
 29890   -77  -119    38
 29900   -88  -109    53
 29910   -79   -97    35
 29920   -77  -103    35
 29930   -74  -106    66
 29940   -78  -115    49
 29950   -88  -111    50
 29960   -87  -107    74
 29970   -74   -99    31
 29980   -97   -92    47
 29990   -66  -107    66
 30000   -49   -97    33
 30010   -83   -97    35
 30020   -98   -98    55
 30030   -82  -111    44
 30040   -82  -100    46
 30050  -107   -99    66
 30060   -76  -119    34
 30070  -106  -103    34
 30080   -81  -103    55
 30090  -110  -105    62
 30100   -93  -112    43
 30110   -93  -101    47
 30120   -82  -108    52
 30130   -77  -104    53
 30140   -81   -97    41
 30150  -105  -107    47
 30160   -82   -98    39
 30170   -85  -111    32
 30180   -65  -111    42
 30190   -82   -96    59
 30200   -69  -104    53
 30210   -81  -108    60
 30220   -90  -114    33
 30230   -84   -92    49
 30240   -76  -110    65
 30250   -74  -111    51
 30260   -86  -109    42
 30270   -80  -109    49
 30280   -78  -117    73
 30290   -77  -126    50
 30300   -95  -102    41
 30310   -74  -103    52
 30320   -77  -105    44
 30330   -93  -108    49
 30340   -84  -131    37
 30350  -109  -101    57
 30360   -78  -108    47
 30370   -80  -126    55
 30380   -94  -116    70
 30390  -102   -97    41
 30400   -72   -99    38
 30410   -88  -100    35
 30420   -84   -97    39
 30430   -86  -105    40
 30440   -59  -103    69
 30450   -87  -119    52
 30460   -81  -109    49
 30470   -73  -100    40
 30480   -88  -108    44
 30490   -64  -114    60
 30500   -92  -106    58
 30510  -100  -113    41
 30520   -90   -98    55
 30530   -85  -110    61
 30540  -110  -112    35
 30550   -91  -127    46
 30560   -91  -104    50
 30570  -107  -109    52
 30580   -64  -112    47
 30590   -98  -120    31
 30600   -85   -97    48
 30610   -95  -113    68
 30620   -98   -97    45
 30630   -91  -122    46
 30640   -96  -130    45
 30650   -88  -113    44
 30660   -84   -91    63
 30670   -77  -107    45
 30680   -89  -128    42
 30690   -70  -122    43
 30700   -80  -105    63
 30710  -101  -113    63
 30720  -102  -120    53
 30730   -85   -99    69
 30740   -87  -115    46
 30750   -75  -111    40
 30760   -81  -117    55
 30770   -64  -137    57
 30780   -89  -105    48
 30790   -94  -102    40
 30800  -103  -113    61
 30810   -79  -118    51
 30820  -102  -101    46
 30830   -81   -93    46
 30840   -85  -117    52
 30850   -76  -132    53
 30860   -77  -108    35
 30870   -74   -99    38
 30880   -78   -98    51
 30890   -79   -98    64
 30900   -88  -112    34
 30910   -94   -84    32
 30920   -75  -116    34
 30930   -71  -133    35
 30940   -90  -112    48
 30950   -81  -109    34
 30960   -70  -113    52
 30970   -85  -106    24
 30980   -93  -118    39
 30990   -84  -103    46
 31000   -82  -109    46
 31010   -82  -100    69
 31020   -93  -100    30
 31030   -68   -94    50
 31040   -95  -112    48
 31050   -90  -103    38
 31060   -82  -113    44
 31070   -93  -119    63
 31080   -75   -91    27
 31090   -71  -114    45
 31100   -88  -102    69
 31110   -95  -101    32
 31120  -101  -116    39
 31130   -85  -113    68
 31140   -77  -108    57
 31150   -98  -100    35
 31160   -92  -103    31
 31170   -88  -114    51
 31180   -85   -95    19
 31190   -62  -105    50
 31200  -105  -114    31
 31210   -67  -104    30
 31220   -94  -102    55
 31230   -80  -108    33
 31240   -85  -106    64
 31250   -89  -108    44
 31260   -94  -110    66
 31270   -98  -111    38
 31280   -79  -116    47
 31290   -71  -111    51
 31300   -90  -119    34
 31310   -92  -114    48
 31320   -70   -96    27
 31330   -85  -108    64
 31340   -78   -94    58
 31350   -89  -113    28
 31360   -97  -104    47
 31370   -88  -111    58
 31380   -83  -106    62
 31390   -76  -106    44
 31400   -92  -104    65
 31410   -92  -110    49
 31420   -93  -104    57
 31430   -56  -119    38
 31440   -87  -105    41
 31450   -94  -118    43
 31460   -79  -105    50
 31470   -87  -114    56
 31480   -57  -110    45
 31490   -76  -100    43
 31500   -79  -125    32
 31510   -81  -107    35
 31520  -107  -119    65
 31530   -73  -104    53
 31540   -88  -114    50
 31550   -97  -111    44
 31560   -83   -93    62
 31570   -87   -98    43
 31580   -75  -102    47
 31590   -79  -111    49
 31600   -74  -102    47
 31610   -81   -91    50
 31620  -100  -105    39
 31630   -96   -93    58
 31640   -92  -102    44
 31650   -85  -108    49
 31660   -82  -129    47
 31670   -89  -111    54
 31680   -69  -104    49
 31690   -89  -123    48
 31700  -109  -103    49
 31710   -96  -100    45
 31720   -72   -73    57
 31730   -69  -109    68
 31740  -100  -102    63
 31750  -101  -107    51
 31760   -75  -110    35
 31770  -106  -115    62
 31780   -78  -103    26
 31790   -74  -102    38
 31800   -91   -97    48
 31810   -86   -98    25
 31820   -78   -87    42
 31830   -75  -108    42
 31840   -80  -114    64
 31850   -93  -100    72
 31860   -90  -100    37
 31870   -75   -96    26
 31880  -105  -101    41
 31890   -85   -93    61
 31900   -95  -104    53
 31910   -67  -112    45
 31920   -95   -95    51
 31930   -70  -105    36
 31940   -55  -110    63
 31950   -72  -103    40
 31960   -87  -109    59
 31970   -89  -112    43
 31980   -91  -105    46
